"Time (s)","Position 1 (m)","Velocity 1 (m/s)","Acceleration 1 (m/s²)","Position 2 (m)","Velocity 2 (m/s)","Acceleration 2 (m/s²)"
0.05,0.282975,0.00323944444445,-0.0123014197531,-0.0032585,-0.00724111111111,0.0612530246914
0.1,0.2831465,0.00276305555556,-0.0142175617284,-0.003773,-0.00390638888889,0.0487134104938
0.15,0.283318,0.00177216666667,-0.015562037037,-0.003773,-0.000743166666666,0.0149586111111
0.2,0.283318,0.0008575,-0.0236288888889,-0.0036015,-0.00161972222222,-0.0533449691358
0.25,0.283318,0.00133388888889,-0.112417191358,-0.0039445,-0.00276305555556,-0.257969876543
0.3,0.2834895,-0.00104805555556,-0.472291944444,-0.0039445,-0.0131483333333,-0.786581574074
0.35,0.2834895,-0.0239147222222,-1.29418981481,-0.004116,-0.0573572222222,-1.70679552469
0.4,0.2834895,-0.105377222222,-2.48399753086,-0.0046305,-0.1946525,-2.34219243827
0.45,0.2793735,-0.302411666667,-3.01035432099,-0.0228095,-0.346144166667,-1.92704598765
0.5,0.252105,-0.478485,-2.15274845679,-0.0440755,-0.410170833333,-1.0075625
0.55,0.2248365,-0.531078333333,-0.936845216049,-0.0656845,-0.428559444444,-0.35845617284
0.6,0.197568,-0.540225,-0.246345987654,-0.0872935,-0.428559444444,-0.0807214506173
0.65,0.170814,-0.536318611111,0.00227608024691,-0.1085595,-0.427511388889,-0.0442512345679
0.7,0.14406,-0.534317777778,0.0546788580247,-0.1298255,-0.430274444444,-0.0799804012346
0.75,0.117306,-0.531173611111,0.0996711419753,-0.1510915,-0.440564444444,-0.0331354938272
0.8,0.090895,-0.527267222222,0.255873765432,-0.174587,-0.438373055556,0.0953836419753
0.85,0.0646555,-0.517834722222,0.725910802469,-0.19551,-0.425605833333,0.1329125
0.9,0.038416,-0.479723611111,1.64915246914,-0.2166045,-0.4210325,0.103482253086
0.95,0.0125195,-0.359578333333,2.60007762346,-0.2375275,-0.418174166667,0.148739197531
1,-0.001372,-0.170356666667,2.58488611111,-0.2584505,-0.414267777778,0.41932808642
1.05,-0.0001715,-0.0577383333333,1.70383132716,-0.279202,-0.393497222222,1.05398395062
1.1,-0.003773,-0.0117191666667,0.918477777778,-0.2996105,-0.327850833333,1.95446481481
1.15,-0.0012005,0.0143869444444,0.467390432099,-0.3171035,-0.172452777778,2.3022287037
1.2,-0.002744,0.0375394444444,0.0752165123457,-0.3157315,-0.0387780555556,1.56001481481
1.25,0.004802,0.0208658333333,-0.199712808642,-0.3147025,-0.0160066666667,0.739408487654
1.3,0.000343,-0.00819388888889,-0.0243487654321,-0.317275,-0.00438277777778,0.550758487654
1.35,0.001029,0.00876555555556,0.295096450617,-0.317618,0.0361102777778,0.476494753086
1.4,-0.000686,0.0572619444444,0.0130742283951,-0.3129875,0.0678377777778,0.0409694444444
1.45,0.0118335,0.0202941666667,-0.4587625,-0.306985,0.0300125,-0.232107253086
1.5,0.0012005,-0.0186744444444,-0.421180709877,-0.312473,0.03087,-0.266989506173
1.55,0.0080605,-0.0279163888889,-0.221838425926,-0.3026975,0.00686,-0.32712037037
1.6,-0.0012005,-0.0404930555556,0.0493327160494,-0.3126445,-0.001715,-0.336648148148
1.65,0.0029155,-0.0221997222222,0.284510030864,-0.3016685,-0.02744,-0.313199228395
1.7,-0.0025725,-0.0181980555556,0.518469907407,-0.3150455,-0.0553563888889,0.0739461419753
1.75,-0.00343,0.0562138888889,0.251162808642,-0.3116155,-0.008575,0.242217283951
1.8,0.0080605,0.0403977777778,-0.5616625,-0.313502,-0.00381111111111,-0.0413399691358
1.85,0.0046305,-0.0430655555556,-0.617241203704,-0.3102435,-0.0235336111111,-0.157261265432
1.9,-0.0008575,-0.053165,-0.0829445987654,-0.316246,-0.0413505555556,0.082150617284
1.95,-0.002058,-0.0347763888889,0.238512037037,-0.317275,-0.00924194444444,0.247298765432
2,-0.0039445,-0.0141963888889,0.279005092593,-0.3157315,0.00142916666667,0.103005864198
2.05,-0.0029155,-0.00390638888889,0.210352160494,-0.3160745,-0.00504972222222,0.0253544753086
2.1,-0.004116,0.00152444444444,0.20839367284,-0.317275,0.0008575,-0.00148209876543
2.15,-0.00343,0.0172452777778,0.188914660494,-0.3153885,-0.00247722222222,-0.042875
2.2,-0.0022295,0.0279163888889,0.0404401234568,-0.3171035,-0.0108616666667,0.0404401234568
2.25,0.0001715,0.0236288888889,-0.142916666667,-0.3177895,0.00181027777778,0.113909876543
2.3,0.0008575,0.00571666666667,-0.187326697531,-0.316589,0.00914666666667,0.0481682098765
2.35,0,-0.00114333333333,-0.112851234568,-0.3160745,0.0042875,0.0145033950617
2.4,0.000343,-0.000762222222222,-0.0968657407407,-0.316589,0.00552611111111,0.0563197530864
2.45,0.000686,-0.0109569444444,-0.0753223765432,-0.315903,0.0127672222222,0.0482211419753
2.5,-0.0012005,-0.0131483333333,0.0177322530864,-0.3150455,0.0149586111111,-0.0412341049383
2.55,-0.0012005,-0.00581194444444,0.0518734567901,-0.3140165,0.0094325,-0.142969598765
2.6,-0.001372,-0.00438277777778,0.0227078703704,-0.3136735,-0.00438277777778,-0.145404475309
2.65,-0.0015435,-0.00466861111111,0.00587546296296,-0.314874,-0.0101947222222,-0.0467919753086
2.7,-0.0018865,-0.005145,0.0217550925926,-0.3150455,-0.00886083333333,0.0511324074074
2.75,-0.002058,-0.00438277777778,0.0887671296296,-0.3160745,-0.0008575,0.0651064814815
2.8,-0.002401,2.15973072759E-16,0.222844135802,-0.314874,0.00190555555556,-0.00545200617284
2.85,-0.002744,0.0176263888889,0.347975617284,-0.31556,-0.00142916666667,-0.0738932098765
2.9,-0.001029,0.0422080555556,0.327226234568,-0.3147025,-0.0103852777778,-0.0507089506173
2.95,0.002058,0.0563091666667,0.185844598765,-0.3171035,-0.01029,0.046474382716
3,0.005145,0.0592627777778,0.0593898148148,-0.3160745,-0.00295361111111,0.0929487654321
3.05,0.0080605,0.0586911111111,-0.00079398148148,-0.317275,0.00219138888889,0.0733638888889
3.1,0.010976,0.0578336111111,-0.0231842592593,-0.315903,0.00781277777778,-0.0139211419753
3.15,0.0138915,0.0562138888889,-0.0335589506173,-0.3157315,-0.00104805555556,-0.0675413580247
3.2,0.0166355,0.0539272222222,-0.0320768518519,-0.3164175,-0.00295361111111,-0.041075308642
3.25,0.019208,0.0528791666667,-0.0272070987654,-0.315903,-0.00619305555556,0.00598132716049
3.3,0.021952,0.05145,-0.0256720679012,-0.3174465,-0.00247722222222,0.0526674382716
3.35,0.024353,0.0501161111111,-0.0211199074074,-0.3164175,0.00543083333333,-0.0042875
3.4,0.0269255,0.0494491666667,-0.0191084876543,-0.3157315,-0.005145,-0.0258837962963
3.45,0.0293265,0.0483058333333,-0.0193202160494,-0.317618,-0.0042875,0.0589134259259
3.5,0.0317275,0.0476388888889,-0.0221785493827,-0.316932,0.00762222222222,0.0317592592593
3.55,0.0341285,0.0462097222222,-0.0267307098765,-0.315903,0.00438277777778,-0.0761692901235
3.6,0.036358,0.0446852777778,-0.0258308641975,-0.315903,-0.00819388888889,-0.0483799382716
3.65,0.0385875,0.0433513888889,-0.0204847222222,-0.317618,-0.00628833333333,0.0785512345679
3.7,0.0406455,0.0427797222222,-0.0173617283951,-0.3171035,0.00609777777778,0.097924382716
3.75,0.042875,0.0421127777778,-0.0223902777778,-0.3164175,0.00924194444444,0.00502854938272
3.8,0.044933,0.0402072222222,-0.022337345679,-0.315903,0.00581194444444,-0.0858558641975
3.85,0.0468195,0.0395402777778,-0.0169912037037,-0.3157315,-0.00114333333333,-0.131430401235
3.9,0.0488775,0.0389686111111,-0.0186320987654,-0.3157315,-0.012005,-0.078762962963
3.95,0.050764,0.03773,-0.0208552469136,-0.3174465,-0.0130530555556,0.0475330246914
4,0.0526505,0.0364913888889,-0.0172558641975,-0.317618,-0.00323944444444,0.10205308642
4.05,0.0543655,0.036015,-0.0141328703704,-0.3174465,0.00181027777778,0.066112191358
4.1,0.056252,0.0355386111111,-0.018949691358,-0.317275,0.00362055555556,0.0149268518519
4.15,0.057967,0.0342047222222,-0.0251956790123,-0.316932,0.00190555555556,-0.0130742283951
4.2,0.059682,0.0326802777778,-0.0251956790123,-0.3171035,0.000381111111111,-0.00455216049383
4.25,0.0612255,0.0313463888889,-0.018949691358,-0.3171035,0.00209611111111,-0.00386404320988
4.3,0.062769,0.03087,-0.0141328703704,-0.3167605,0.00152444444444,-0.0246663580247
4.35,0.0643125,0.0303936111111,-0.0172558641975,-0.3167605,-0.00181027777778,-0.0208552469136
4.4,0.065856,0.029155,-0.0209081790123,-0.3171035,-0.00247722222222,0.0130212962963
4.45,0.067228,0.0279163888889,-0.0190026234568,-0.317275,0.00123861111111,0.0178910493827
4.5,0.0686,0.0273447222222,-0.0188438271605,-0.3167605,0.00142916666667,-0.0125978395062
4.55,0.069972,0.0265825,-0.027312962963,-0.316932,-0.00161972222222,-0.018737962963
4.6,0.071344,0.0243911111111,-0.0318651234568,-0.3171035,-0.00200083333333,0.00031759259259
4.65,0.072373,0.0227713888889,-0.0254074074074,-0.317275,-0.000190555555556,5.29320987645E-05
4.7,0.0735735,0.0220091666667,-0.0208552469136,-0.316932,-0.00104805555556,-0.014662191358
4.75,0.0746025,0.0208658333333,-0.019680154321,-0.317275,-0.00362055555556,0.000571666666668
4.8,0.0756315,0.0201988888889,-0.0221997222222,-0.317618,-0.00104805555556,0.0172505709877
4.85,0.0766605,0.0187697222222,-0.0270059567901,-0.317275,9.28799861096E-18,0.00458921296296
4.9,0.077518,0.0172643333333,-0.0276305555556,-0.3174465,-0.0015435,0.00652652777778
4.95,0.0783755,0.0159113888889,-0.026667191358,-0.317618,-0.000238194444444,0.0208711265432
5,0.0790615,0.0146727777778,-0.0255767901235,-0.3174465,0.00152444444444,0.0295466975309
