"Time (s)","Position 1 (m)","Velocity 1 (m/s)","Acceleration 1 (m/s²)","Position 2 (m)","Velocity 2 (m/s)","Acceleration 2 (m/s²)"
0.05,0.000343,0,-0.0110522222222,-0.0008575,0.00133388888889,0.00323944444444
0.1,0.000343,0,-0.0334901388889,-0.0008575,0.00209611111111,-0.00990888888889
0.15,0.000343,-0.00160066666667,-0.0643125,-0.0005145,0.000971833333333,-0.0231207407407
0.2,0.000343,-0.005145,-0.105959475309,-0.000686,-0.00152444444444,-0.0143869444444
0.25,0.000343,-0.0168641666667,-0.0613800617284,-0.0008575,-0.000762222222222,0.00123861111111
0.3,-0.002058,-0.0157208333333,0.060967191358,-0.000686,-0.000952777777778,0.0090937345679
0.35,-0.001715,-0.00619305555556,0.113539351852,-0.001029,0.000190555555555,0.0138682098765
0.4,-0.0022295,-0.00152444444444,0.112216049383,-0.000686,0.00152444444444,-0.000688117283949
0.45,-0.001715,0.00123861111111,0.1500625,-0.000686,-0.000381111111111,-0.00624598765432
0.5,-0.003087,0.01715,0.15048595679,-0.0008575,9.2482445313E-17,0.00338765432099
0.55,0.000686,0.0196272222222,0.24052345679,-0.000686,0.000285833333333,0.00788688271605
0.6,0.000686,0.00886083333333,1.02788842593,-0.0008575,0.00123861111111,0.00391697530864
0.65,-0.0012005,0.0680283333333,2.7097,-0.0005145,0.00114333333333,-0.00899845679012
0.7,-0.002401,0.305651111111,3.79962484568,-0.000686,0,-0.0148739197531
0.75,0.029155,0.550324444444,2.95541080247,-0.0005145,-0.00104805555556,-0.0084162037037
0.8,0.06174,0.631405833333,1.39576651235,-0.0008575,-0.00104805555556,0.00185262345679
0.85,0.0944965,0.650651944444,0.437377932099,-0.000686,9.52777777775E-05,-0.00629891975308
0.9,0.12691,0.648936944444,0.0438277777778,-0.000686,-0.00133388888889,-0.0356762345679
0.95,0.1593235,0.647603055556,-0.126243055556,-0.0008575,-0.00181027777778,-0.148156944444
1,0.191737,0.643315555556,-0.47506558642,-0.001029,-0.00647888888889,-0.485863734568
1.05,0.2238075,0.620925277778,-1.25258518519,-0.0008575,-0.0318227777778,-1.13571111111
1.1,0.2560495,0.543940833333,-2.42042608025,-0.0005145,-0.125671388889,-1.63157901235
1.15,0.28469,0.350622222222,-2.99076944444,-0.0128625,-0.231334444444,-1.42641419753
1.2,0.2896635,0.179598611111,-2.32530709877,-0.0265825,-0.284308888889,-0.859564351852
1.25,0.296695,0.114714444444,-1.46579567901,-0.0423605,-0.3095575,-0.383334259259
1.3,0.3016685,0.0576430555556,-0.976120833333,-0.05831,-0.313082777778,-0.10676404321
1.35,0.302183,0.0174358333333,-0.566055864198,-0.073745,-0.312796944444,-0.0123331790123
1.4,0.3020115,0.00266777777778,-0.247616358025,-0.089523,-0.312320555556,0.0111686728395
1.45,0.3020115,-9.52777777779E-05,-0.0748989197531,-0.1051295,-0.310319722222,-0.00227608024691
1.5,0.3020115,-9.52777777778E-05,-0.0137094135802,-0.120393,-0.311081944444,-0.0331354938272
1.55,0.3020115,0,-0.00127037037037,-0.135828,-0.317751388889,0.00905138888889
1.6,0.3020115,0,-0.00195848765432,-0.1528065,-0.313463888889,0.10634058642
1.65,0.3020115,-9.52777777777E-05,-0.00640478395062,-0.1675555,-0.302125833333,0.119150154321
1.7,0.3020115,-0.000476388888889,-0.0126507716049,-0.182476,-0.299172222222,0.083262191358
1.75,0.3020115,-0.00161972222222,-0.0128095679012,-0.197568,-0.295265833333,0.0629362654321
1.8,0.30184,-0.00247722222222,5.29320987623E-05,-0.211974,-0.292693333333,0.0416046296296
1.85,0.3016685,-0.00161972222222,0.0133388888889,-0.226723,-0.291931111111,0.0387992283951
1.9,0.3016685,-0.000476388888889,0.015562037037,-0.2413005,-0.289072777778,0.0459450617284
1.95,0.3016685,0,0.0164618827161,-0.255535,-0.287548333333,0.0720405864197
2,0.3016685,0.000666944444445,0.0237665123457,-0.2701125,-0.285071111111,0.196748611111
2.05,0.3016685,0.00238194444444,0.0274188271605,-0.2841755,-0.274876388889,0.495338580247
2.1,0.30184,0.00485916666667,0.00502854938271,-0.2978955,-0.250199444444,1.03842191358
2.15,0.3023545,0.00371583333333,-0.0304888888889,-0.3123015,-0.168451111111,1.48024614198
2.2,0.3023545,3.0827481771E-17,-0.0338236111111,-0.3157315,-0.0686,1.28402685185
2.25,0.302183,-0.000952777777778,-0.0127566358025,-0.315903,-0.0256297222222,0.763810185185
2.3,0.302183,-0.000476388888889,-0.00248780864198,-0.317618,-0.00276305555556,0.37428287037
2.35,0.302183,-0.000476388888889,-0.00486975308642,-0.3160745,0.00867027777778,0.0730462962963
2.4,0.302183,-0.00123861111111,-0.00502854938272,-0.3157315,0.000762222222222,-0.0991947530864
2.45,0.3020115,-0.00133388888889,0.000158796296299,-0.3157315,-0.0115286111111,-0.0637302469136
2.5,0.3020115,-0.000762222222222,-0.00174675925925,-0.317618,-0.0111475,0.0770162037037
2.55,0.3020115,-0.00142916666667,-0.00481682098765,-0.317618,0.00276305555556,0.108616666667
2.6,0.30184,-0.00161972222222,-0.0013762345679,-0.3167605,0.00743166666667,0.00576959876543
2.65,0.30184,-0.00161972222222,0.00349351851851,-0.3160745,-0.00133388888889,-0.0263601851852
2.7,0.3016685,-0.00133388888889,0.00931604938272,-0.3174465,-0.00152444444444,0.0441983024691
2.75,0.3016685,-0.000381111111111,0.00905138888889,-0.3167605,0.00686,0.0529850308642
2.8,0.3016685,-0.000190555555556,0.00545200617284,-0.3164175,0.00971833333333,-0.0427691358025
2.85,0.3016685,-9.52777777778E-05,0.00640478395062,-0.315217,0.001715,-0.127248765432
2.9,0.3016685,-0.000190555555556,0.0166736111111,-0.316246,-0.00752694444444,-0.119838271605
2.95,0.301497,0.00219138888889,0.0159854938272,-0.3160745,-0.0140058333333,-0.0265189814815
3,0.3020115,0.00247722222222,-0.00328179012346,-0.317961,-0.0127672222222,0.116133024691
3.05,0.30184,0.00104805555556,-0.00968657407408,-0.317961,9.52777777778E-05,0.205323611111
3.1,0.3020115,0.00114333333333,-0.00899845679012,-0.317961,0.0140058333333,0.168271141975
3.15,0.3020115,0.000285833333333,-0.00836327160494,-0.3160745,0.0192461111111,0.0620893518519
3.2,0.3020115,9.52777777777E-05,-0.00386404320988,-0.3160745,0.0213422222222,-0.0716171296296
3.25,0.3020115,0,-0.0012174382716,-0.313502,0.0141963888889,-0.219244753086
3.3,0.3020115,0,0.00148209876543,-0.3136735,-0.00933722222222,-0.197172067901
3.35,0.3020115,9.52777777778E-05,0.00455216049383,-0.31556,-0.0133388888889,-0.0289538580247
3.4,0.3020115,0.000381111111111,0.00762222222222,-0.31556,-0.00676472222222,0.0554199074074
3.45,0.3020115,0.00123861111111,0.00296419753087,-0.315903,-0.00352527777778,0.0573783950617
3.5,0.302183,0.00114333333333,-0.00984537037037,-0.315903,-0.000762222222222,0.0365231481481
3.55,0.302183,0,-0.0176793209877,-0.315903,-9.52777777778E-05,0.0151385802469
3.6,0.302183,-0.00123861111111,-0.0133918209877,-0.315903,0.000190555555556,0.00576959876543
3.65,0.3020115,-0.00161972222222,-0.00142916666666,-0.315903,0.000666944444444,-0.00439336419753
3.7,0.3020115,-0.00142916666667,0.0117509259259,-0.3157315,-0.000666944444444,-0.00624598765432
3.75,0.30184,-0.000571666666666,0.0236077160494,-0.3160745,-0.000285833333333,-0.00185262345679
3.8,0.30184,0.00200083333333,0.0147680555556,-0.3157315,-0.000381111111111,-0.00455216049383
3.85,0.302183,0.00200083333333,-0.0125978395062,-0.3160745,-0.00104805555556,-0.00164089506173
3.9,0.302183,-0.000476388888889,-0.018949691358,-0.315903,-0.000571666666667,0.00211728395062
3.95,0.3020115,-0.00104805555556,-0.0041287037037,-0.3160745,-0.000952777777778,0.00815154320988
4,0.3020115,-0.000381111111111,0.0044462962963,-0.3160745,9.52777777778E-05,0.0154032407407
4.05,0.3020115,-9.52777777778E-05,0.00386404320988,-0.3160745,0.00123861111111,0.0097924382716
4.1,0.3020115,0,0.00132330246914,-0.315903,0.00142916666667,-0.00243487654321
4.15,0.3020115,0,-0.00142916666667,-0.315903,0.000952777777778,-0.0123861111111
4.2,0.3020115,-9.52777777777E-05,-0.00465802469136,-0.3157315,-0.000666944444444,-0.00640478395062
4.25,0.3020115,-0.000381111111111,-0.00836327160494,-0.3160745,-0.000476388888889,0.0126507716049
4.3,0.3020115,-0.00123861111111,-0.00666944444444,-0.315903,0.00181027777778,0.0109569444444
4.35,0.30184,-0.00133388888889,-0.000899845679015,-0.3157315,0.00142916666667,-0.00545200617284
4.4,0.30184,-0.000762222222222,-0.00666944444445,-0.3157315,0.000476388888889,-0.0101100308642
4.45,0.30184,-0.00142916666667,-0.0285833333333,-0.3157315,9.52777777778E-05,-0.00894552469136
4.5,0.3016685,-0.00285833333333,-0.0637302469136,-0.3157315,-0.000190555555556,-0.00926311728395
4.55,0.3016685,-0.00666944444444,-0.105017283951,-0.3157315,-0.000666944444444,-0.0102688271605
4.6,0.301497,-0.0178169444444,-0.0610836419753,-0.3157315,-0.00200083333333,0.0015350308642
4.65,0.2992675,-0.0177216666667,0.0675942901235,-0.3160745,-0.000952777777778,0.019637808642
4.7,0.299096,-0.00628833333333,0.113751080247,-0.315903,0.00142916666667,0.0129154320988
4.75,0.299096,-0.00161972222222,0.070399691358,-0.3157315,0.000571666666667,0.000730462962963
4.8,0.299096,-9.52777777777E-05,0.028424537037,-0.315903,0.000571666666667,0.0015562037037
4.85,0.299096,0,0.00666944444444,-0.3157315,0.00114333333333,-0.00528262345679
4.9,0.299096,0,0.00123861111111,-0.3157315,0.000743166666667,-0.023025462963
4.95,0.299096,0,7.93981481481E-05,-0.31556,-0.00123861111111,-0.0405036419753
5,0.299096,0,0,-0.315903,-0.00419222222222,-0.0519158024691
