"Time (s)","Position 1 (m)","Velocity 1 (m/s)","Acceleration 1 (m/s²)","Position 2 (m)","Velocity 2 (m/s)","Acceleration 2 (m/s²)"
0.05,0.0001715,0.000190555555556,-0.0546788580247,-0.0018865,-0.000381111111111,0.0044462962963
0.1,0.0001715,-0.00147680555556,-0.0864116512346,-0.0018865,-0.000476388888889,0.00825740740741
0.15,0.0001715,-0.005145,-0.125242638889,-0.002058,0.0008575,0.00454157407407
0.2,0.000343,-0.0180075,-0.095568904321,-0.001715,0.000762222222222,-0.0111157407407
0.25,-0.002058,-0.0229619444444,0.0733374228395,-0.0018865,-0.000952777777778,-0.0142387345679
0.3,-0.0032585,-0.00581194444444,0.166418518519,-0.0018865,-0.00142916666667,-0.0029112654321
0.35,-0.0018865,0.00152444444444,0.12174382716,-0.002058,-0.00123861111111,0.00910432098765
0.4,-0.0025725,0.000762222222222,0.135559104938,-0.002058,-9.52777777778E-05,0.0124919753086
0.45,-0.003087,0.0177216666667,0.0883966049383,-0.002058,0.000762222222222,0.00206435185185
0.5,0,0.0199130555556,-0.114968518519,-0.0018865,0,-0.00624598765432
0.55,0.000343,-0.00190555555556,-0.160807716049,-0.002058,-0.000762222222222,0.000741049382716
0.6,-0.0012005,-0.00876555555556,0.0671708333333,-0.002058,0,0.00989830246914
0.65,-0.001029,-0.000190555555555,0.459080092593,-0.002058,0.000952777777778,0.00693410493827
0.7,-0.001372,0.0231525,1.07679768519,-0.0018865,0.000666944444444,0.00206435185185
0.75,-0.002401,0.113475833333,1.51057623457,-0.002058,0.00114333333333,-0.00232901234568
0.8,0.0094325,0.212850555556,1.20753996914,-0.001715,0.000762222222222,-0.0101100308642
0.85,0.0224665,0.248484444444,0.588604938272,-0.0018865,-0.00104805555556,0.00105864197531
0.9,0.035329,0.256964166667,0.190873148148,-0.002058,0.000952777777778,0.0099512345679
0.95,0.0481915,0.256868888889,0.0230783950617,-0.001715,0.00161972222222,-0.00799274691358
1,0.061054,0.255439722222,-0.0222844135802,-0.001715,-0.000571666666667,-0.0139740740741
1.05,0.073745,0.25382,-0.0320239197531,-0.0018865,-0.000952777777778,-0.00132330246914
1.1,0.086436,0.252105,-0.0335589506173,-0.0018865,-0.000190555555556,0.00381111111111
1.15,0.0989555,0.25039,-0.0324473765432,-0.0018865,0.000381111111111,-0.00571666666667
1.2,0.111475,0.248770277778,-0.0295890432099,-0.001715,-0.00114333333333,-0.00947484567901
1.25,0.123823,0.247341111111,-0.0258837962963,-0.002058,-0.00181027777778,0.00741049382716
1.3,0.136171,0.246483611111,-0.027312962963,-0.002058,0.000285833333333,0.0140270061728
1.35,0.148519,0.244863888889,-0.0326061728395,-0.0018865,0.000285833333333,0.00767515432099
1.4,0.1606955,0.2426725,-0.0292185185185,-0.002058,0.000571666666667,0.00709290123457
1.45,0.1727005,0.241815,-0.023925308642,-0.0018865,0.00161972222222,-0.00307006172839
1.5,0.184877,0.2409575,-0.0292714506173,-0.001715,-0.000190555555556,-0.00561080246914
1.55,0.196882,0.238766111111,-0.0329766975309,-0.002058,0.000381111111111,0.00190555555556
1.6,0.2087155,0.237146388889,-0.0292185185185,-0.001715,0.00133388888889,-0.0109569444444
1.65,0.220549,0.236193611111,-0.0326061728395,-0.001715,-0.000952777777778,-0.020537654321
1.7,0.2323825,0.234478611111,-0.0534084876543,-0.0018865,-0.00200083333333,-0.0185791666667
1.75,0.2440445,0.231810833333,-0.114756790123,-0.002058,-0.000666944444444,-0.0808802469136
1.8,0.255535,0.227142222222,-0.281334104938,-0.0018865,-0.00400166666667,-0.276146759259
1.85,0.2670255,0.212088333333,-0.596333024691,-0.002058,-0.0196272222222,-0.606495987654
1.9,0.278173,0.1689275,-0.896722685185,-0.0018865,-0.0702197222222,-0.799380555556
1.95,0.2852045,0.103948055556,-0.834739197531,-0.008918,-0.122717777778,-0.561609567901
2,0.2869195,0.0686,-0.445635339506,-0.0166355,-0.131578611111,-0.203312191358
2.05,0.2903495,0.0665991666667,-0.155990895062,-0.0224665,-0.129006111111,-0.0717229938272
2.1,0.293951,0.0640266666667,-0.0768044753086,-0.028812,-0.134532222222,-0.0409694444444
2.15,0.2968665,0.0607872222222,-0.083262191358,-0.0361865,-0.136056666667,0.0115921296296
2.2,0.299782,0.0587863888889,-0.167688888889,-0.0427035,-0.132721944444,0.0503913580247
2.25,0.303212,0.0474483333333,-0.300918981481,-0.049392,-0.129577777778,0.0620364197531
2.3,0.30527,0.0233430555556,-0.32971404321,-0.0557375,-0.125290277778,0.0467390432099
2.35,0.3050985,0.00686,-0.217656790123,-0.06174,-0.1243375,0.0200083333333
2.4,0.30527,0.00314416666667,-0.127142901235,-0.0680855,-0.124909166667,0.0200612654321
2.45,0.3054415,-0.000476388888889,-0.129260185185,-0.074431,-0.122527222222,0.0256191358025
2.5,0.3054415,-0.00743166666667,-0.16848287037,-0.080262,-0.121288611111,0.0173087962963
2.55,0.30527,-0.0230572222222,-0.105811265432,-0.086436,-0.121765,0.0247722222222
2.6,0.3023545,-0.0243911111111,0.067700154321,-0.09261,-0.119478333333,0.0417634259259
2.65,0.3020115,-0.0105758333333,0.143816512346,-0.098441,-0.116334166667,0.0394344135802
2.7,0.30184,-0.00438277777778,0.112586574074,-0.1041005,-0.115190833333,0.0313887345679
2.75,0.3016685,-9.52777777778E-05,0.0782865740741,-0.1099315,-0.114523888889,0.0425044753086
2.8,0.30184,0.00247722222222,0.0640478395062,-0.1157625,-0.1106175,0.0474800925926
2.85,0.3020115,0.00466861111111,0.0826270061728,-0.1209075,-0.108140277778,0.0253015432099
2.9,0.302183,0.00905138888889,0.117509259259,-0.1263955,-0.108711944444,0.0115921296296
2.95,0.3023545,0.0215327777778,0.058225308642,-0.1318835,-0.107759166667,0.00772808641975
3,0.3050985,0.0202941666667,-0.091837191358,-0.1372,-0.107092222222,-0.00767515432099
3.05,0.3050985,0.00619305555556,-0.134765123457,-0.1425165,-0.107663888889,-0.0292185185185
3.1,0.3050985,0.00152444444444,-0.0767515432099,-0.1476615,-0.112713611111,-0.00116450617284
3.15,0.3050985,0,-0.0292185185185,-0.1541785,-0.110808055556,0.0779160493827
3.2,0.3050985,0,-0.00598132716049,-0.159152,-0.101566111111,0.0994064814815
3.25,0.3050985,0,-0.000846913580247,-0.163954,-0.0981361111111,0.0684941358025
3.3,0.3050985,0,0,-0.1689275,-0.0957541666667,0.0475330246914
3.35,0.3050985,0,5.29320987654E-05,-0.173558,-0.0936580555556,0.0328179012346
3.4,0.3050985,0,0.000370524691358,-0.1781885,-0.0931816666667,0.0345646604938
3.45,0.3050985,0,0.00179969135802,-0.1829905,-0.0907044444444,0.0454157407407
3.5,0.3050985,9.52777777778E-05,0.00465802469136,-0.187278,-0.0879413888889,0.0443041666667
3.55,0.3050985,0.000381111111111,0.00793981481481,-0.191737,-0.0859405555556,0.0368407407407
3.6,0.3050985,0.00123861111111,0.00439336419753,-0.195853,-0.0843208333333,0.0291655864198
3.65,0.30527,0.00123861111111,-0.0070399691358,-0.2001405,-0.0833680555556,0.0270483024691
3.7,0.30527,0.000285833333333,-0.0147680555556,-0.2042565,-0.0814625,0.0243487654321
3.75,0.30527,-0.000381111111111,-0.018737962963,-0.208201,-0.0807955555556,0.020537654321
3.8,0.30527,-0.001715,-0.0174675925926,-0.212317,-0.0804144444444,0.0326061728395
3.85,0.3050985,-0.00276305555556,-0.00365231481482,-0.216433,-0.0769844444444,0.0360467592593
3.9,0.304927,-0.00247722222222,0.0163560185185,-0.219863,-0.0759363888889,0.0258837962963
3.95,0.3047555,-0.000476388888889,0.0254074074074,-0.223979,-0.0755552777778,0.0339294753086
4,0.304927,0.0008575,0.0229195987654,-0.2275805,-0.0726016666667,0.0422927469136
4.05,0.304927,0.000762222222222,0.0449922839506,-0.231182,-0.0705055555556,0.0365231481481
4.1,0.304927,0.00343,0.0996711419753,-0.234612,-0.0687905555556,0.0263601851852
4.15,0.3050985,0.00962305555556,0.156784876543,-0.238042,-0.0677425,0.0152973765432
4.2,0.30527,0.0250580555556,0.0989300925926,-0.2413005,-0.0679330555556,0.0173617283951
4.25,0.308357,0.0265825,-0.0824682098765,-0.244902,-0.0669802777778,0.0352527777778
4.3,0.3088715,0.0109569444444,-0.164089506173,-0.2481605,-0.0633597222222,0.0355174382716
4.35,0.3088715,0.00362055555556,-0.123755246914,-0.251076,-0.0624069444444,0.018737962963
4.4,0.309043,-9.52777777779E-05,-0.0933192901235,-0.2543345,-0.0625022222222,0.017838117284
4.45,0.3088715,-0.00362055555556,-0.0953836419753,-0.2574215,-0.0612636111111,0.028212808642
4.5,0.3087,-0.00762222222222,-0.125449074074,-0.2605085,-0.0590722222222,0.0300125
4.55,0.3087,-0.0204847222222,-0.0760634259259,-0.2632525,-0.0580241666667,0.0267836419753
4.6,0.305956,-0.0206752777778,0.0654240740741,-0.2663395,-0.056595,0.0256191358025
4.65,0.305956,-0.00867027777778,0.115974228395,-0.268912,-0.0552611111111,0.0210669753086
4.7,0.305613,-0.00438277777778,0.0777043209877,-0.2718275,-0.0545941666667,0.0188438271605
4.75,0.305613,-0.00190555555556,0.0414352469136,-0.2744,-0.0534508333333,0.0182298148148
4.8,0.3054415,-0.00123861111111,0.0205058950617,-0.277144,-0.0528791666667,0.0209981635803
4.85,0.3054415,0.000190555555556,0.00615070987654,-0.2797165,-0.0515452777778,0.0286944907408
4.9,0.305613,-0.000971833333333,0.000762222222222,-0.282289,-0.0503638333333,0.0422556944445
4.95,0.30527,-0.0008575,0.0146780709877,-0.2848615,-0.0473054166667,0.0558380709877
5,0.3054415,0.00114333333333,0.0281175308642,-0.2869195,-0.0440183333333,0.062385771605
