"Time (s)","Position 1 (m)","Velocity 1 (m/s)","Acceleration 1 (m/s²)","Position 2 (m)","Velocity 2 (m/s)","Acceleration 2 (m/s²)"
0.05,-0.0025725,0.0215327777778,-0.148887407407,-0.0022295,0.000571666666667,0.00350410493827
0.1,-0.0015435,0.0173405555556,-0.19720912037,-0.0022295,0.00100041666667,-0.000963364197531
0.15,0.000343,0.00182933333333,-0.183536759259,-0.002058,0.000400166666667,-0.00258837962963
0.2,-0.0012005,-0.0156255555556,0.104763209877,-0.0022295,0.000381111111111,0.00157208333333
0.25,-0.0029155,0.00219138888889,0.63240095679,-0.002058,0.000952777777778,-0.000428750000001
0.3,-0.0015435,0.0418269444444,1.25167475309,-0.002058,0.000381111111111,-0.0037687654321
0.35,-0.001372,0.133388888889,1.67990601852,-0.002058,0.000285833333333,-0.0030700617284
0.4,0.010633,0.243911111111,1.4278962963,-0.002058,0.000571666666667,-0.00942191358025
0.45,0.0262395,0.295456388889,0.771855864198,-0.0018865,-0.000952777777778,-0.00968657407407
0.5,0.041846,0.309652777778,0.278793364198,-0.0022295,-0.00114333333333,0.0027524691358
0.55,0.0574525,0.310319722222,0.0489092592593,-0.002058,-0.000285833333333,0.00820447530864
0.6,0.0728875,0.3087,-0.0176263888889,-0.0022295,9.52777777778E-05,0.00598132716049
0.65,0.0883225,0.307080277778,-0.0277364197531,-0.002058,0.000666944444445,-0.00301712962963
0.7,0.103586,0.305651111111,-0.0244016975309,-0.002058,-0.000666944444445,-0.00418163580247
0.75,0.1188495,0.304888888889,-0.0244016975309,-0.0022295,-0.000190555555556,0.00280540123457
0.8,0.134113,0.303459722222,-0.0288479938272,-0.002058,0,0.0030700617284
0.85,0.149205,0.30184,-0.0302242283951,-0.0022295,0.000190555555556,0.00132330246914
0.9,0.164297,0.300220277778,-0.0271012345679,-0.002058,0.000571666666667,-0.00767515432099
0.95,0.1792175,0.298886388889,-0.0196907407407,-0.002058,-0.000952777777778,-0.00921018518519
1,0.194138,0.29841,-0.0161442901235,-0.0022295,-0.00114333333333,0.0029112654321
1.05,0.2090585,0.297838333333,-0.0258837962963,-0.0022295,-0.000285833333333,0.00370524691358
1.1,0.223979,0.296313888889,-0.0581194444444,-0.0022295,0.000285833333333,-0.0341412037037
1.15,0.238728,0.293931944444,-0.165148148148,-0.0022295,0.000285833333334,-0.185738734568
1.2,0.2533055,0.287357777778,-0.446482253086,-0.002058,-0.00933722222222,-0.510953549383
1.25,0.2680545,0.262585555556,-0.942932407407,-0.002058,-0.0429702777778,-0.930493364198
1.3,0.282289,0.187506666667,-1.28032160494,-0.003773,-0.120812222222,-0.985172222222
1.35,0.287434,0.102709444444,-1.00814475309,-0.0159495,-0.167403055556,-0.551605401235
1.4,0.2896635,0.0713630555556,-0.437430864198,-0.022981,-0.168260555556,-0.20537654321
1.45,0.2927505,0.0762222222222,-0.165624537037,-0.031899,-0.176359166667,-0.0619305555556
1.5,0.297724,0.0770797222222,-0.313146296296,-0.0409885,-0.175025277778,0.0403342592593
1.55,0.3023545,0.0448758333333,-0.494068209877,-0.049735,-0.169403888889,0.065000617284
1.6,0.302183,0.0114333333333,-0.392914969136,-0.0577955,-0.165402222222,0.0318651234568
1.65,0.302183,0.000952777777777,-0.182509876543,-0.0660275,-0.165973888889,-0.00894552469136
1.7,0.3020115,-0.00133388888889,-0.0526145061728,-0.0742595,-0.169022777778,-0.00127037037037
1.75,0.3020115,-0.000476388888889,-0.00640478395061,-0.0831775,-0.167879444444,0.0400695987654
1.8,0.3020115,-0.000476388888889,-0.00444629629629,-0.091238,-0.163115555556,0.0504442901235
1.85,0.3020115,-0.00123861111111,-0.00333472222222,-0.0992985,-0.161400555556,0.0339824074074
1.9,0.30184,-0.00123861111111,0.00338765432099,-0.107359,-0.160161944444,0.0231842592593
1.95,0.30184,-0.000476388888889,0.00338765432098,-0.115248,-0.160066666667,0.0283186728395
2,0.30184,-0.000476388888889,-0.00338765432099,-0.12348,-0.157875277778,0.0378464506173
2.05,0.30184,-0.00123861111111,-0.00338765432099,-0.1311975,-0.153873611111,0.00476388888889
2.1,0.3016685,-0.00123861111111,0.00338765432099,-0.138572,-0.155302777778,-0.0560021604938
2.15,0.3016685,-0.000476388888889,0.00338765432099,-0.1462895,-0.163591944444,-0.0409694444444
2.2,0.3016685,-0.000476388888889,-0.00333472222222,-0.155379,-0.164163611111,0.0583311728395
2.25,0.3016685,-0.00123861111111,-0.00301712962963,-0.163268,-0.154540555556,0.106552314815
2.3,0.301497,-0.00123861111111,0.00518734567901,-0.170471,-0.149871944444,0.0860675925926
2.35,0.301497,-0.000381111111111,0.00804567901235,-0.1781885,-0.1466325,0.065212345679
2.4,0.301497,-9.52777777778E-05,0.00465802469136,-0.18522,-0.143011944444,0.0382699074074
2.45,0.301497,0,0.00195848765432,-0.1922515,-0.143297777778,0.0245604938272
2.5,0.301497,0,0.00148209876543,-0.199626,-0.142249722222,0.0393814814815
2.55,0.301497,0,0.00545200617284,-0.2066575,-0.138533888889,0.0417634259259
2.6,0.301497,0.000285833333333,0.0139211419753,-0.213346,-0.136818888889,0.0249839506173
2.65,0.301497,0.00114333333333,0.0236077160494,-0.220206,-0.1372,0.0255662037037
2.7,0.301497,0.00371583333333,0.0126507716049,-0.2272375,-0.135008611111,0.0375817901235
2.75,0.3020115,0.00362055555556,-0.0191084876543,-0.2337545,-0.132055,0.027524691358
2.8,0.3020115,0.000762222222222,-0.0319709876543,-0.2402715,-0.131959722222,0.0129683641975
2.85,0.3020115,-0.000952777777777,-0.0187908950617,-0.24696,-0.131769166667,0.0160384259259
2.9,0.30184,-0.00123861111111,-0.000582253086421,-0.253477,-0.131006944444,0.0305947530864
2.95,0.30184,-0.000381111111111,0.0068811728395,-0.2601655,-0.128434444444,0.0401225308642
3,0.30184,-9.52777777777E-05,0.00449922839506,-0.2663395,-0.125576111111,0.0258308641975
3.05,0.30184,0,0.00179969135802,-0.2725135,-0.126147777778,0.016461882716
3.1,0.30184,0,0.000370524691358,-0.2790305,-0.125480833333,0.0329766975309
3.15,0.30184,0,5.29320987654E-05,-0.2852045,-0.122431944444,0.044462962963
3.2,0.30184,0,0,-0.291207,-0.120240555556,0.0471095679012
3.25,0.30184,0,0,-0.2972095,-0.118525555556,0.0787100308642
3.3,0.30184,0,-5.29320987654E-05,-0.3030405,-0.115571944444,0.191614197531
3.35,0.30184,0,-0.000370524691358,-0.3088715,-0.106234722222,0.423509722222
3.4,0.30184,0,-0.00179969135803,-0.314874,-0.0744119444444,0.649318055556
3.45,0.30184,-9.52777777778E-05,-0.00465802469136,-0.317275,-0.0256297222222,0.576801080247
3.5,0.30184,-0.000381111111111,-0.00799274691358,-0.3157315,-0.00705055555556,0.30742962963
3.55,0.30184,-0.00123861111111,-0.00486975308642,-0.3174465,-0.000762222222222,0.12005
3.6,0.3016685,-0.00123861111111,0.00449922839506,-0.3157315,0,0.0324473765432
3.65,0.3016685,-0.000381111111111,0.00651064814815,-0.3174465,9.52777777778E-05,0.0158266975309
3.7,0.3016685,-0.000190555555556,0.0015350308642,-0.3157315,0.00104805555556,0.0195319444444
3.75,0.3016685,-0.000285833333333,-0.00259367283951,-0.317275,0.000762222222222,0.0440924382716
3.8,0.3016685,-0.000952777777778,0.00248780864198,-0.3160745,0.00743166666667,0.033611882716
3.85,0.301497,-0.000190555555556,0.0110098765432,-0.3160745,0.00609777777778,-0.00968657407408
3.9,0.3016685,0.000381111111111,0.0143445987654,-0.3153885,0.00390638888889,-0.0145563271605
3.95,0.301497,0.00152444444444,0.0111157407407,-0.315903,0.00400166666667,-0.00846913580247
4,0.30184,0.00219138888889,-0.00455216049383,-0.3150455,0.00562138888889,-0.0423456790123
4.05,0.30184,0.000666944444445,-0.0131271604938,-0.314874,-0.00114333333333,-0.0628304012346
4.1,0.30184,0.000190555555556,-0.00963364197531,-0.31556,-0.00152444444444,-0.0646830246914
4.15,0.30184,-9.52777777778E-05,-0.00793981481482,-0.3147025,-0.00752694444444,-0.0579077160494
4.2,0.30184,-0.000381111111111,-0.00868086419753,-0.3164175,-0.01029,0.00227608024691
4.25,0.30184,-0.00123861111111,-0.00492268518519,-0.3160745,-0.00724111111111,0.0580135802469
4.3,0.3016685,-0.00123861111111,0.00481682098766,-0.317275,-0.00142916666667,0.0620364197531
4.35,0.3016685,-0.000381111111111,0.00799274691358,-0.315903,9.52777777777E-05,0.0357820987654
4.4,0.3016685,-9.52777777778E-05,0.00465802469136,-0.317275,0.000285833333333,0.0337706790123
4.45,0.3016685,0,0.00179969135803,-0.316246,0.00638361111111,-0.0105334876543
4.5,0.3016685,0,0.000370524691358,-0.3157315,-0.00219138888889,-0.0310182098765
4.55,0.3016685,0,5.29320987654E-05,-0.3171035,-0.000762222222222,0.0141328703704
4.6,0.3016685,0,-5.29320987654E-05,-0.3160745,0.00447805555556,-0.019637808642
4.65,0.3016685,0,-0.000370524691358,-0.3157315,-0.00400166666667,-0.0341941358025
4.7,0.3016685,0,-0.00179969135802,-0.3171035,-0.00314416666667,0.0134976851852
4.75,0.3016685,-9.52777777778E-05,-0.00466861111111,-0.3164175,0.00304888888889,-0.0204000308642
4.8,0.3016685,-0.000381111111111,-0.00810390432099,-0.3157315,-0.00657416666667,-0.0242270216049
4.85,0.3016685,-0.00123861111111,-0.00520322530864,-0.317618,-0.00676472222222,0.0871738734568
4.9,0.301497,-0.00125766666667,0.00382699074074,-0.317275,0.00691716666667,0.118509675926
4.95,0.301497,-0.000524027777778,0.00782336419753,-0.316246,0.0105281944444,0.0657469598765
5,0.301497,-0.000190555555556,0.0080562654321,-0.315903,0.00990888888889,0.0223055864197
