"Time (s)","Position 1 (m)","Velocity 1 (m/s)","Acceleration 1 (m/s²)","Position 2 (m)","Velocity 2 (m/s)","Acceleration 2 (m/s²)"
0.05,-0.001029,-0.0261061111111,0.31042558642,-0.003773,0.000190555555556,-0.0310711419753
0.1,-0.0032585,-0.00719347222222,0.234325108025,-0.0036015,-0.00233430555556,-0.00569020061729
0.15,-0.001372,-0.000228666666667,0.143440694444,-0.004116,-0.00228666666667,0.0273606018519
0.2,-0.00343,0.00543083333333,0.0823147067901,-0.004116,0.00238194444444,0.0270218364198
0.25,-0.0012005,0.0157208333333,-0.0905297685185,-0.0036015,0.00238194444444,-0.00833680555556
0.3,0.000343,-0.0101947222222,-0.13246787037,-0.003773,0.000381111111111,-0.0251956790123
0.35,-0.0036015,-0.0124813888889,0.0799804012346,-0.0036015,-0.00133388888889,-0.0186850308642
0.4,-0.0022295,0.00724111111111,0.139899537037,-0.0039445,-0.00219138888889,0.0042875
0.45,-0.001715,0.00971833333333,0.0533026234568,-0.0039445,-0.000476388888889,0.0194790123457
0.5,-0.0012005,0.0104805555556,-0.018049845679,-0.0039445,0.000476388888889,0.0187908950617
0.55,-0.0005145,0.00571666666667,-0.0258308641975,-0.0039445,0.00209611111111,0.00381111111111
0.6,-0.000686,0.00200083333333,0.162342746914,-0.0036015,0.00114333333333,-0.0151915123457
0.65,-0.0001715,0.00676472222222,0.693781018519,-0.003773,-0.000666944444445,-0.0115921296296
0.7,-0.0012005,0.0459238888889,1.63030864198,-0.003773,-0.000762222222222,0.00492268518519
0.75,-0.0012005,0.186172777778,2.18482530864,-0.0039445,0.000762222222222,0.00640478395062
0.8,0.0176645,0.322610555556,1.63687222222,-0.0036015,0.000762222222222,-0.00677530864198
0.85,0.036358,0.363770555556,0.744489969136,-0.003773,-0.000762222222222,-0.00640478395062
0.9,0.0550515,0.373488888889,0.222579475309,-0.003773,-0.000762222222222,0.00846913580247
0.95,0.073745,0.372059722222,0.0176793209877,-0.0039445,0.0008575,0.0107981481481
1,0.092267,0.37044,-0.0265719135802,-0.0036015,0.00114333333333,-0.0016938271605
1.05,0.110789,0.368725,-0.0335060185185,-0.003773,0.000285833333333,-0.00793981481482
1.1,0.1291395,0.36701,-0.0320768518519,-0.0036015,-9.52777777778E-05,-0.00603425925926
1.15,0.14749,0.365390277778,-0.0277893518519,-0.003773,-0.000666944444445,0.00238194444445
1.2,0.165669,0.364056388889,-0.0213316358025,-0.003773,0.000666944444445,0.00127037037037
1.25,0.183848,0.363484722222,-0.0215962962963,-0.0036015,6.16911036144E-17,-0.011062808642
1.3,0.202027,0.3627225,-0.0470566358025,-0.003773,-0.000571666666667,-0.0289538580247
1.35,0.220206,0.360340555556,-0.134129938272,-0.0036015,-0.00200083333333,-0.0910961419753
1.4,0.238042,0.355290833333,-0.384022376543,-0.004116,-0.00485916666667,-0.264819290123
1.45,0.2560495,0.3352825,-0.886612654321,-0.003773,-0.0181980555556,-0.603584722222
1.5,0.2735425,0.274114166667,-1.46807175926,-0.003773,-0.0701244444444,-0.824311574074
1.55,0.2862335,0.163591944444,-1.54667592593,-0.0108045,-0.122241388889,-0.639949074074
1.6,0.2879485,0.0876555555556,-1.00301033951,-0.0180075,-0.138915,-0.330772685185
1.65,0.292236,0.0659322222222,-0.454792592593,-0.0248675,-0.147204166667,-0.141275771605
1.7,0.294294,0.0574525,-0.19378441358,-0.0327565,-0.150634166667,-0.0191084876543
1.75,0.2975525,0.0587863888889,-0.207440895062,-0.0403025,-0.147394722222,0.0449922839506
1.8,0.301154,0.0417316666667,-0.337706790123,-0.0475055,-0.143488333333,0.0528791666667
1.85,0.302183,0.0168641666667,-0.326802777778,-0.054537,-0.141201666667,0.0375817901235
1.9,0.302183,0.00295361111111,-0.197013271605,-0.0615685,-0.140248888889,0.0272070987654
1.95,0.3020115,-0.00114333333333,-0.0812507716049,-0.0686,-0.138915,0.0255132716049
2,0.3020115,-0.00200083333333,-0.0244016975309,-0.07546,-0.137581111111,0.0246663580247
2.05,0.30184,-0.0025725,0.00127037037037,-0.08232,-0.136723611111,0.0297478395062
2.1,0.3016685,-0.00161972222222,0.0139211419753,-0.08918,-0.135008611111,0.041975154321
2.15,0.3016685,-0.000476388888889,0.0112216049383,-0.0958685,-0.132245555556,0.0482740740741
2.2,0.3016685,-0.000190555555556,0.00185262345679,-0.1023855,-0.129863611111,0.0467919753086
2.25,0.3016685,-0.000381111111111,-0.00587546296296,-0.1089025,-0.126814722222,0.0314945987654
2.3,0.3016685,-0.00123861111111,-0.00476388888889,-0.114905,-0.126719444444,0.0173617283951
2.35,0.301497,-0.00123861111111,0.0030700617284,-0.1215935,-0.126243055556,0.024137037037
2.4,0.301497,-0.000476388888889,0.00344058641975,-0.127596,-0.124623333333,0.0355174382716
2.45,0.301497,-0.000476388888889,-0.0025936728395,-0.134113,-0.121860277778,0.0277893518519
2.5,0.301497,-0.00123861111111,0.000582253086421,-0.1397725,-0.120145277778,-0.0110098765432
2.55,0.3013255,-0.00104805555556,0.014450462963,-0.1459465,-0.122050833333,-0.0565314814815
2.6,0.3013255,0.000381111111111,0.0236606481481,-0.151606,-0.129577777778,-0.0298007716049
2.65,0.3013255,0.00238194444444,0.0116450617284,-0.1593235,-0.1294825,0.0747401234568
2.7,0.3016685,0.00238194444444,-0.0184203703704,-0.1651545,-0.118620833333,0.120420524691
2.75,0.3016685,0.000381111111111,-0.0524027777778,-0.170814,-0.11319,0.0874967592593
2.8,0.3016685,-0.0025725,-0.0886083333333,-0.176302,-0.110808055556,0.0598662037037
2.85,0.301497,-0.00733638888889,-0.126666512346,-0.1819615,-0.108235555556,0.0478506172839
2.9,0.301497,-0.0201988888889,-0.0697115740741,-0.1871065,-0.106139444444,0.0420810185185
2.95,0.298753,-0.0199130555556,0.0822564814815,-0.1925945,-0.1037575,0.0340882716049
3,0.298753,-0.00609777777778,0.13333595679,-0.1973965,-0.102804722222,0.0277893518519
3.05,0.298753,-0.00133388888889,0.0861734567901,-0.2028845,-0.101756666667,0.0341941358025
3.1,0.298753,0.000571666666667,0.062512808642,-0.2076865,-0.0988983333333,0.0329766975309
3.15,0.298753,0.00314416666667,0.0694469135802,-0.21266,-0.0979455555556,0.0243487654321
3.2,0.299096,0.00571666666667,0.101523765432,-0.217462,-0.0971833333333,0.0276834876543
3.25,0.298753,0.0168641666667,0.0662709876543,-0.2224355,-0.0955636111111,0.0374759259259
3.3,0.3013255,0.0180075,-0.0637831790123,-0.227066,-0.0929911111111,0.0395932098765
3.35,0.3013255,0.00562138888889,-0.109516512346,-0.2316965,-0.0910855555556,0.0312828703704
3.4,0.3013255,0.00181027777778,-0.0590192901235,-0.2361555,-0.0897516666667,0.0215433641975
3.45,0.3013255,0.00123861111111,-0.0213845679012,-0.2406145,-0.0892752777778,0.0188967592593
3.5,0.301497,0.00123861111111,-0.00915725308642,-0.2450735,-0.0888941666667,0.0329237654321
3.55,0.301497,0.000381111111111,-0.00338765432098,-0.249704,-0.0853688888889,0.037687654321
3.6,0.301497,0.000381111111111,0.00936898148148,-0.253477,-0.0838444444444,0.0225490740741
3.65,0.301497,0.00114333333333,0.0225490740741,-0.257936,-0.0847019444444,0.0327649691358
3.7,0.301497,0.00371583333333,0.0158796296296,-0.2622235,-0.0810813888889,0.0513441358025
3.75,0.3020115,0.00381111111111,-0.00984537037037,-0.2659965,-0.0781277777778,0.0467390432099
3.8,0.3020115,0.00152444444444,-0.0160384259259,-0.269941,-0.0765080555556,0.0412341049383
3.85,0.3020115,0.00152444444444,-0.00952777777778,-0.273714,-0.0741261111111,0.0353586419753
3.9,0.302183,0.00123861111111,-0.0120155864198,-0.2773155,-0.0726016666667,0.0249310185185
3.95,0.302183,0.000285833333333,-0.013762345679,-0.280917,-0.0719347222222,0.0208552469136
4,0.302183,-0.000285833333333,-0.0128625,-0.2845185,-0.0711725,0.0281069444444
4.05,0.302183,-0.00123861111111,-0.00698703703704,-0.28812,-0.0689811111111,0.0340353395062
4.1,0.3020115,-0.00123861111111,0.00259367283951,-0.2913785,-0.0672661111111,0.0314945987654
4.15,0.3020115,-0.000476388888889,0.0029112654321,-0.2948085,-0.0661227777778,0.0317592592593
4.2,0.3020115,-0.000476388888889,-0.00518734567901,-0.298067,-0.0639313888889,0.0283186728395
4.25,0.3020115,-0.00133388888889,-0.00804567901234,-0.301154,-0.0626927777778,0.0177322530864
4.3,0.30184,-0.00161972222222,-0.0046050925926,-0.304241,-0.0628833333333,0.0248780864198
4.35,0.30184,-0.001715,-0.00142916666667,-0.3074995,-0.0620258333333,0.0739990740741
4.4,0.3016685,-0.001715,0.00142916666667,-0.3105865,-0.0570713888889,0.159325617284
4.45,0.3016685,-0.00161972222222,0.00465802469136,-0.3133305,-0.0479247222222,0.265560339506
4.5,0.301497,-0.00133388888889,0.00852206790124,-0.3160745,-0.0273447222222,0.303830246914
4.55,0.301497,-0.000476388888889,0.00772808641975,-0.315903,-0.0094325,0.197383796296
4.6,0.301497,-0.000381111111111,0.00529320987654,-0.315903,-0.0101947222222,0.117509259259
4.65,0.301497,-0.000666944444444,0.0143445987654,-0.317618,-0.00219138888889,0.108352006173
4.7,0.3013255,0.000762222222222,0.0260425925926,-0.316246,0.00666944444444,0.0159854938272
4.75,0.301497,0.00333472222222,0.0132647839506,-0.3157315,-0.00362055555556,-0.0228243209877
4.8,0.30184,0.00276305555556,-0.0109939969136,-0.3174465,-0.00152444444444,0.0353533487654
4.85,0.30184,0.000952777777778,-0.0129736574074,-0.316246,0.00619305555556,0.00601837962963
4.9,0.30184,0.000628833333333,0.00109569444444,-0.3157315,-0.00268683333333,0.0115127314815
4.95,0.30184,0.00138152777778,0.012391404321,-0.317275,0.00119097222222,0.109929382716
5,0.3020115,0.00247722222222,0.0188120679012,-0.315903,0.0135294444444,0.185590524691
