"Time (s)","Position 1 (m)","Velocity 1 (m/s)","Acceleration 1 (m/s²)","Position 2 (m)","Velocity 2 (m/s)","Acceleration 2 (m/s²)"
0.05,0.0015435,-0.00323944444444,0.0160807716049,-0.002058,-0.00457333333333,0.0373065432099
0.1,0.001372,-0.00262013888889,0.0164724691358,-0.002401,-0.00228666666667,0.0292291049383
0.15,0.0012005,-0.00125766666667,0.00608189814815,-0.0022295,-0.0015435,0.023025462963
0.2,0.0012005,-0.000285833333333,-0.0257091203704,-0.0025725,-0.000666944444444,0.0267730555556
0.25,0.001372,-0.00323944444444,-0.045145787037,-0.002401,0.00190555555556,0.0159113888889
0.3,0.001372,-0.0116238888889,0.0620999382716,-0.0022295,0.00161972222222,-0.00729404320987
0.35,-0.0005145,-0.00466861111111,0.258467438272,-0.0022295,0.0008575,-0.0232901234568
0.4,-0.0008575,0.0283927777778,0.170070833333,-0.002058,-0.00142916666667,-0.023237191358
0.45,0.00343,0.0373488888889,-0.323150462963,-0.002401,-0.00295361111111,0.00423456790123
0.5,0.0066885,-0.0169594444444,-0.559809876543,-0.0025725,-0.000571666666667,0.0237665123457
0.55,0.001029,-0.0592627777778,-0.0879202160494,-0.002401,0.000952777777778,0.0157208333333
0.6,-0.0039445,-0.0213422222222,0.351680864198,-0.002401,0.00123861111111,0.00105864197531
0.65,-0.0001715,0.00638361111111,0.315422376543,-0.0022295,0.000476388888889,-0.00534614197531
0.7,-0.001029,0.00247722222222,0.409959104938,-0.002401,0.000285833333333,-0.00322885802469
0.75,-0.001029,0.0212469444444,0.928799537037,-0.0022295,0.000666944444444,-0.00825740740741
0.8,-0.0018865,0.0948966666667,1.42906080247,-0.0022295,-0.000762222222222,-0.00883966049383
0.85,0.0070315,0.196176944444,1.32256141975,-0.002401,-0.000571666666667,-0.00174675925926
0.9,0.0204085,0.249341944444,0.75761712963,-0.0022295,-0.00104805555556,0.00714583333333
0.95,0.0337855,0.263728888889,0.288691666667,-0.0025725,-0.000285833333333,0.0199554012346
1,0.046991,0.265634444444,0.0628833333333,-0.002401,0.0025725,0.00349351851852
1.05,0.060368,0.264776944444,-0.0151915123457,-0.002058,0.000952777777778,-0.0267307098765
1.1,0.0735735,0.262109166667,-0.0286362654321,-0.0022295,-0.00200083333333,-0.0228666666667
1.15,0.086436,0.261632777778,-0.0274717592593,-0.002401,-0.0025725,0.00550493827161
1.2,0.099813,0.260013055556,-0.0349351851852,-0.0025725,-0.00114333333333,0.029324382716
1.25,0.112504,0.257345277778,-0.030912345679,-0.0025725,0.00142916666667,0.0305418209877
1.3,0.1253665,0.257345277778,-0.0337177469136,-0.002401,0.00333472222222,0.00312299382716
1.35,0.1384005,0.254772777778,-0.0481152777778,-0.002058,0.001715,-0.0247192901235
1.4,0.15092,0.251056944444,-0.0393814814815,-0.0022295,-0.000190555555556,-0.0313358024691
1.45,0.163268,0.250961666667,-0.0326061728395,-0.002058,-0.00238194444444,-0.0173087962963
1.5,0.1761305,0.249151388889,-0.0476388888889,-0.0025725,-0.00247722222222,0.00751635802469
1.55,0.188307,0.245340277778,-0.0520322530864,-0.002401,-0.000666944444445,0.0119097222222
1.6,0.2004835,0.244101666667,-0.0631479938272,-0.0025725,-9.52777777778E-05,-0.0129683641975
1.65,0.2128315,0.240481111111,-0.102000154321,-0.002401,-0.000476388888889,-0.0742108024691
1.7,0.224665,0.234288055556,-0.157261265432,-0.002401,-0.00590722222222,-0.173670216049
1.75,0.236327,0.225617777778,-0.244599228395,-0.002744,-0.01715,-0.298695833333
1.8,0.247303,0.213041111111,-0.400854783951,-0.0039445,-0.0343,-0.458868364198
1.85,0.2581075,0.189221666667,-0.622163888889,-0.005831,-0.0605966666667,-0.653711419753
1.9,0.2670255,0.148823888889,-0.79578117284,-0.009261,-0.101851944444,-0.787100308642
1.95,0.2731995,0.1029,-0.823411728395,-0.015778,-0.147585277778,-0.746713117284
2,0.277144,0.0605013888889,-0.710931018519,-0.0245245,-0.183314444444,-0.560339197531
2.05,0.278859,0.0277258333333,-0.504972222222,-0.0348145,-0.203989722222,-0.350145833333
2.1,0.279202,0.01029,-0.299542746914,-0.045276,-0.215041944444,-0.199501080247
2.15,0.279545,0.001715,-0.17022962963,-0.0564235,-0.221997222222,-0.0996182098765
2.2,0.2793735,-0.00466861111111,-0.0940603395062,-0.0677425,-0.223331111111,-0.0450452160494
2.25,0.278859,-0.00666944444444,-0.050550154321,-0.0787185,-0.224569722222,-0.0378464506173
2.3,0.2786875,-0.00809861111111,-0.0395932098765,-0.090209,-0.226284722222,-0.0512382716049
2.35,0.278173,-0.0109569444444,-0.0254074074074,-0.1013565,-0.228190277778,-0.082150617284
2.4,0.277487,-0.0118144444444,0.00497561728395,-0.112504,-0.238003888889,-0.0454157407407
2.45,0.276801,-0.00952777777778,0.0194790123457,-0.1257095,-0.237622777778,0.0751635802469
2.5,0.2766295,-0.00838444444444,0.0084162037037,-0.136857,-0.226570555556,0.127883950617
2.55,0.276115,-0.00971833333333,0.0106393518519,-0.1480045,-0.220568055556,0.0991418209877
2.6,0.275429,-0.00762222222222,0.0175734567901,-0.158809,-0.216756944444,0.0594427469136
2.65,0.275429,-0.00666944444444,0.00486975308642,-0.1696135,-0.2152325,0.0302242283951
2.7,0.2749145,-0.00809861111111,0.00693410493827,-0.1802465,-0.215041944444,0.0281069444444
2.75,0.2744,-0.00619305555556,0.0126507716049,-0.1912225,-0.213231666667,0.0409165123457
2.8,0.2744,-0.00590722222222,0.00492268518518,-0.201684,-0.209611111111,0.0330296296296
2.85,0.2738855,-0.00666944444444,0.012174382716,-0.211974,-0.209420555556,0.0179439814815
2.9,0.2735425,-0.00457333333333,0.0179969135802,-0.222607,-0.209420555556,0.0295890432099
2.95,0.2735425,-0.00409694444444,0.0127037037037,-0.2330685,-0.206943333333,0.0495973765432
3,0.2731995,-0.00447805555556,0.024137037037,-0.2433585,-0.203322777778,0.0507089506173
3.05,0.2728565,-0.00123861111111,0.0262543209877,-0.2533055,-0.201131388889,0.0362584876543
3.1,0.2731995,-0.000190555555555,0.00269953703704,-0.263424,-0.200083333333,0.0276305555556
3.15,0.273028,-0.00209611111111,-0.0015350308642,-0.273371,-0.198463611111,0.0321297839506
3.2,0.2728565,-0.00190555555556,0.0197436728395,-0.2831465,-0.198749444444,0.101312037037
3.25,0.272685,0.000762222222222,0.0278952160494,-0.293265,-0.194938333333,0.318068981481
3.3,0.273028,0.00219138888889,0.0132330246914,-0.303212,-0.176073333333,0.695686574074
3.35,0.273028,0.00142916666667,0.00561080246913,-0.3126445,-0.122527222222,0.994647067901
3.4,0.273028,0.0025725,0.00105864197531,-0.315903,-0.0594533333333,0.942561882716
3.45,0.273371,0.00228666666667,-0.0135506172839,-0.317618,-0.0158161111111,0.622852006173
3.5,0.273371,0.000190555555556,-0.011274537037,-0.3164175,0.00466861111111,0.250262962963
3.55,0.2731995,0.000952777777778,-0.0044462962963,-0.315903,-0.000952777777778,0.0624069444444
3.6,0.2735425,0.000666944444444,-0.0107981481481,-0.317275,0.00323944444444,0.0355703703704
3.65,0.273371,-0.00114333333333,-0.00185262345679,-0.31556,0.00609777777778,-0.0203788580247
3.7,0.2731995,0.000571666666667,0.00539907407407,-0.3160745,9.25185853854E-17,-0.0477447530864
3.75,0.2735425,0.000571666666666,-0.00555787037037,-0.315903,-0.00123861111111,-0.0327649691358
3.8,0.273371,-0.00114333333333,0.000793981481482,-0.316246,-0.00200083333333,-0.0277893518519
3.85,0.2731995,0.000666944444445,0.00576959876543,-0.315903,-0.005145,0.00831033950617
3.9,0.2735425,0.000666944444444,-0.00788688271605,-0.316932,-0.00400166666667,0.0939544753086
3.95,0.273371,-0.0008575,-0.00899845679012,-0.316589,0.00323944444444,0.184150771605
4,0.273371,-0.00104805555556,0.00280540123457,-0.3171035,0.0195319444444,0.158531635802
4.05,0.2731995,-0.000190555555556,0.00963364197531,-0.3143595,0.0278211111111,-0.0316533950617
4.1,0.273371,0.000666944444444,0.00354645061729,-0.313502,0.0187697222222,-0.228666666667
4.15,0.273371,-0.000285833333333,0.00232901234568,-0.311101,-0.00933722222222,-0.167477160494
4.2,0.2731995,0.0008575,0.00217021604938,-0.3157315,-0.0163877777778,0.186638580247
4.25,0.2735425,0.000666944444444,-0.00862793209877,-0.316246,0.0338236111111,0.139952469136
4.3,0.273371,-0.00114333333333,-0.00142916666667,-0.3081855,0.0164830555556,-0.213422222222
4.35,0.2731995,0.000571666666667,0.00539907407407,-0.313502,-0.0178169444444,-0.0784453703704
4.4,0.2735425,0.000571666666666,-0.00576959876543,-0.3133305,0.000285833333333,0.210193364198
4.45,0.273371,-0.00114333333333,1.23346067156E-15,-0.3133305,0.0212469444444,0.203841512346
4.5,0.2731995,0.000571666666667,0.00571666666667,-0.3102435,0.0259155555556,0.0654770061728
4.55,0.2735425,0.000571666666666,-0.0058225308642,-0.311101,0.0322991666667,-0.161125308642
4.6,0.273371,-0.00114333333333,-0.000635185185184,-0.304927,0.00238194444444,-0.245552006173
4.65,0.2731995,0.000571666666667,0.0029112654321,-0.31213,-0.00571666666667,-0.100941512346
4.7,0.2735425,0.000381111111111,-0.0112216049383,-0.306642,0.00295361111111,0.954365740741
4.75,0.273371,-0.001715,-0.00593898148148,-0.3105865,-0.00971833333333,7.52670095679
4.8,0.2731995,-0.00104805555556,0.0117191666667,-0.306642,-0.0348716666667,38.8790076543
4.85,0.2731995,0.000666944444444,0.00890317901234,-0.314531,-0.0348716666667,116.384430988
4.9,0.273371,0.000743166666666,-0.0100676851852,-0.315217,0.17992116667,250.264296852
4.95,0.273371,-0.0008575,-0.0227449228395,-0.3136735,0.2767294444,363.348231512
5,0.2731995,-0.00228666666667,-0.0276729012345,3.196074,0.7024505555,420.226217099
