"Time (s)","Position 1 (m)","Velocity 1 (m/s)","Acceleration 1 (m/s²)","Position 2 (m)","Velocity 2 (m/s)","Acceleration 2 (m/s²)"
0.05,-0.001715,-0.00114333333333,0.0528050617284,-0.002058,0.000571666666667,0.00430867283951
0.1,-0.0018865,0.0008575,0.0847919290123,-0.002058,0.00100041666667,0.00132859567901
0.15,-0.0015435,0.00520216666667,0.106965185185,-0.0018865,0.0005145,0.00138152777778
0.2,-0.001715,0.00933722222222,0.163539012346,-0.002058,0.000762222222222,0.00597603395062
0.25,-0.001715,0.0345858333333,-0.00501796296296,-0.0018865,0.00200083333333,-0.00432455246914
0.3,0.004802,0.00638361111111,-0.149035617284,-0.001715,0.0008575,-0.0216174691358
0.35,-0.00343,0.0121955555556,-0.0986125,-0.001715,-0.00161972222222,-0.0143445987654
0.4,0.0073745,-0.0025725,0.117244598765,-0.002058,-0.00123861111111,0.00508148148148
0.45,-0.0018865,-0.0258202777778,1.29651882716,-0.0018865,0.000190555555556,0.00391697530864
0.5,-0.002401,0.0936580555556,2.97467808642,-0.0018865,-0.000762222222222,-0.00058225308642
0.55,0.001372,0.325945277778,3.56868209877,-0.002058,-0.000285833333333,0.000529320987654
0.6,0.031899,0.532793333333,2.54936867284,-0.0018865,-0.000381111111111,-0.00269953703704
0.65,0.0622545,0.594628611111,1.11808472222,-0.002058,-0.000952777777778,0.00111157407407
0.7,0.092953,0.607491111111,0.311505401235,-0.002058,-0.000285833333333,0.00317592592593
0.75,0.123137,0.603394166667,0.0139740740741,-0.002058,-9.52777777778E-05,-0.0154032407407
0.8,0.1531495,0.601583888889,-0.0639419753086,-0.002058,-0.000190555555556,-0.10459382716
0.85,0.183162,0.601393333333,-0.247986882716,-0.002058,-0.00285833333333,-0.424197839506
0.9,0.2135175,0.5908175,-0.770956018519,-0.002058,-0.0232477777778,-1.1703287037
0.95,0.243187,0.547561388889,-1.74035447531,-0.002401,-0.0954683333333,-2.31371496914
1,0.271999,0.425510555556,-2.7785117284,-0.006174,-0.270207777778,-3.06635648148
1.05,0.289835,0.228380833333,-2.9584279321,-0.028469,-0.463145277778,-2.61701589506
1.1,0.2924075,0.0757458333333,-2.06091126543,-0.057624,-0.561376666667,-1.51031157407
1.15,0.292579,0.0179122222222,-0.981043518519,-0.087122,-0.598820833333,-0.604272839506
1.2,0.2927505,0.00247722222222,-0.336806944444,-0.1185065,-0.603298888889,-0.0885024691358
1.25,0.292579,0.00123861111111,-0.0863851851852,-0.1480045,-0.593675833333,0.0833680555556
1.3,0.292922,0.000476388888889,-0.033400154321,-0.1775025,-0.589007222222,0.106922839506
1.35,0.2927505,-0.00200083333333,-0.0148209876543,-0.206829,-0.585863055556,0.208922993827
1.4,0.292579,-0.00200083333333,0.0111157407407,-0.2361555,-0.5788125,0.609142592593
1.45,0.2924075,0.000381111111111,0.0147151234568,-0.2649675,-0.550133888889,1.52338580247
1.5,0.2927505,0.000666944444445,-0.00217021604938,-0.294294,-0.449615833333,2.75373950617
1.55,0.292579,-0.000762222222222,-0.00534614197531,-0.316246,-0.236955833333,3.17555540123
1.6,0.292579,-0.000762222222222,0.00539907407407,-0.316246,-0.0564044444444,2.15168981481
1.65,0.2924075,0.000666944444444,0.00254074074074,-0.3143595,-0.0149586111111,0.88793595679
1.7,0.2927505,0.000381111111111,-0.0130212962963,-0.316932,-0.00724111111111,0.300601388889
1.75,0.292579,-0.00190555555556,-0.00714583333333,-0.31556,-0.00219138888889,0.124549228395
1.8,0.2924075,-0.00161972222222,0.0187908950617,-0.3171035,0.00190555555556,0.0932663580247
1.85,0.292236,0.00152444444444,0.0195848765432,-0.315903,0.0142916666667,-0.0329237654321
1.9,0.2927505,0.00181027777778,-0.00460509259259,-0.3140165,-0.00228666666667,-0.129524845679
1.95,0.292579,-0.000666944444445,-0.00333472222222,-0.316589,-0.01029,-0.0223902777778
2,0.2924075,0.00104805555556,0.00492268518519,-0.315903,-0.00447805555556,0.093636882716
2.05,0.2927505,0.00152444444444,-0.0113804012346,-0.3171035,0.00504972222222,0.110839814815
2.1,0.2927505,-0.000762222222222,-0.0159325617284,-0.3150455,0.00905138888889,0.0697645061728
2.15,0.292579,-0.00161972222222,0.00375817901235,-0.316246,0.0107663888889,0.0708760802469
2.2,0.2924075,0.000476388888889,0.0102158950617,-0.3136735,0.0122908333333,0.154985185185
2.25,0.2927505,0.000666944444445,-0.00359938271605,-0.3147025,0.0135294444444,0.376135493827
2.3,0.292579,-0.000762222222222,-0.00391697530864,-0.3160745,0.0685047222222,0.218874228395
2.35,0.292579,-0.000666944444445,0.0099512345679,-0.3057845,0.0807955555556,-0.649635648148
2.4,0.2924075,0.00104805555556,0.010162962963,-0.300468,-0.0299172222222,-0.903233333333
2.45,0.2927505,0.00161972222222,-0.0099512345679,-0.312816,-0.0740308333333,-0.0515558641975
2.5,0.2927505,-0.000762222222222,-0.0164089506173,-0.3143595,-0.008575,0.408477006173
2.55,0.292579,-0.00161972222222,0.00354645061728,-0.310415,0.0123861111111,0.0926311728395
2.6,0.2924075,0.000476388888889,0.00979243827161,-0.310415,-0.0111475,-0.111527932099
2.65,0.2927505,0.000666944444445,-0.00539907407407,-0.3129875,-0.0180075,-0.00465802469136
2.7,0.292579,-0.0008575,-0.008575,-0.313159,-0.00809861111111,0.0903021604938
2.75,0.292579,-0.00104805555556,0.00195848765432,-0.3133305,-0.00266777777778,0.0826799382716
2.8,0.2924075,-0.000190555555556,0.00539907407408,-0.3133305,0.000762222222222,0.043563117284
2.85,0.292579,0.000381111111111,-0.00481682098765,-0.313159,0.00114333333333,0.00862793209877
2.9,0.292579,-0.00114333333333,-0.00693410493827,-0.313159,0.000476388888889,-0.00217021604938
2.95,0.2924075,-0.00161972222222,0.0114333333333,-0.313159,0.000381111111111,-0.000899845679012
3,0.292236,0.000762222222222,0.0167265432099,-0.313159,0.0008575,-0.00486975308642
3.05,0.292579,0.00161972222222,-0.00354645061729,-0.3129875,0,-0.00973950617284
3.1,0.292579,-0.000476388888889,-0.0101100308642,-0.313159,-0.0008575,-0.00206435185185
3.15,0.2924075,-0.000666944444445,0.00391697530864,-0.313159,-0.000190555555556,0.00502854938272
3.2,0.2924075,0.000762222222222,0.00534614197531,-0.313159,9.52777777778E-05,0.0044462962963
3.25,0.292579,0.000762222222222,-0.00709290123457,-0.313159,0.000666944444444,-0.00370524691358
3.3,0.292579,-0.000762222222222,-0.00672237654321,-0.3129875,-0.000666944444444,-0.00598132716049
3.35,0.2924075,-0.000762222222222,0.00746342592593,-0.3133305,-0.000285833333333,-0.00142916666667
3.4,0.2924075,0.000762222222222,0.0099512345679,-0.3129875,-0.000381111111111,-0.00280540123457
3.45,0.292579,0.000952777777778,0.000423456790122,-0.3133305,-0.000952777777778,0.00264660493827
3.5,0.292579,-9.52777777779E-05,0.00322885802469,-0.313159,-0.000190555555556,0.00820447530864
3.55,0.2924075,0.00123861111111,0.00619305555556,-0.3133305,0.000190555555556,0.00778101851852
3.6,0.2927505,0.001715,-0.00815154320988,-0.313159,0.000952777777778,0.000370524691358
3.65,0.2927505,-0.000381111111111,-0.00905138888889,-0.313159,0.000190555555556,-0.00598132716049
3.7,0.292579,-0.000381111111111,0.00831033950617,-0.313159,-9.52777777778E-05,-0.00386404320988
3.75,0.292579,0.001715,0.00534614197531,-0.313159,-0.000571666666667,0.00391697530864
3.8,0.292922,0.00104805555556,-0.0115921296296,-0.3133305,0.000762222222222,0.00465802469136
3.85,0.2927505,-0.000666944444445,-0.008575,-0.3129875,0.000666944444444,-0.00730462962963
3.9,0.2927505,-0.000666944444444,0.00815154320988,-0.313159,-0.00114333333333,-0.00148209876543
3.95,0.292579,0.00104805555556,0.00979243827161,-0.3133305,0.000571666666667,0.00370524691358
4,0.292922,0.00161972222222,-0.0100570987654,-0.3129875,0.000476388888889,-0.0101100308642
4.05,0.292922,-0.000762222222222,-0.0167794753086,-0.313159,-0.00152444444444,-0.00651064814815
4.1,0.2927505,-0.00161972222222,0.00179969135803,-0.3133305,-0.000571666666667,0.00423456790123
4.15,0.292579,0.000381111111111,0.00545200617284,-0.313159,-0.000381111111111,0.00481682098765
4.2,0.292922,0.000285833333333,-0.0119097222222,-0.3133305,-0.000571666666667,0.011962654321
4.25,0.2927505,-0.00200083333333,-0.010162962963,-0.3133305,0.00104805555556,0.0127566358025
4.3,0.292579,-0.00200083333333,0.0119097222222,-0.313159,0.00142916666667,0.000370524691358
4.35,0.2924075,0.000381111111111,0.0148209876543,-0.313159,0.00114333333333,-0.0125978395062
4.4,0.2927505,0.000666944444445,-0.00217021604938,-0.3129875,-0.000190555555556,-0.0176263888889
4.45,0.292579,-0.000762222222222,-0.00529320987655,-0.313159,-0.001715,-0.00322885802469
4.5,0.292579,-0.000762222222222,0.00571666666667,-0.3133305,-0.000381111111111,0.00942191358025
4.55,0.2924075,0.000666944444444,0.00396990740741,-0.313159,0.000476388888889,0.00116450617284
4.6,0.2927505,0.000476388888889,-0.010162962963,-0.313159,-0.000666944444444,-0.00195848765432
4.65,0.292579,-0.00161972222222,-0.00391697530864,-0.3133305,-0.000190555555556,0.00206435185185
4.7,0.2924075,-0.000762222222222,0.0149797839506,-0.313159,-9.52777777778E-05,0.000952777777778
4.75,0.2924075,0.00152444444444,0.00716700617284,-0.3133305,-9.52777777778E-05,0.000846913580247
4.8,0.2927505,0.000762222222222,-0.0129577777778,-0.313159,-9.52777777778E-05,0.00113804012346
4.85,0.292579,-0.00152444444444,-0.00293243827161,-0.3133305,-0.000381111111111,0.00569020061728
4.9,0.2924075,-0.000628833333334,0.0269318518519,-0.3133305,0.00142916666667,-0.00659004629629
4.95,0.2924075,0.00209611111111,0.0442724074074,-0.3129875,-0.000142916666667,-0.0338500771605
5,0.2927505,0.00476388888889,0.0516405555555,-0.3133305,-0.00343,-0.0524557098765
