"Time (s)","Position 1 (m)","Velocity 1 (m/s)","Acceleration 1 (m/s²)","Position 2 (m)","Velocity 2 (m/s)","Acceleration 2 (m/s²)"
0.05,0.008918,-0.0798427777778,0.781680061728,-0.0015435,-0.00362055555556,0.0519793209877
0.1,0.00343,-0.0407788888889,0.743478966049,-0.0018865,-0.000381111111111,0.0355968364198
0.15,0.0032585,-0.000800333333333,0.611175185185,-0.0015435,0.0008575,0.0151491666667
0.2,0.00343,0.0349669444444,0.220282222222,-0.001715,0.000571666666667,0.00407577160494
0.25,0.008575,0.0319180555556,-0.355110864198,-0.0015435,0.00104805555556,-0.00280540123457
0.3,0.008575,-0.0105758333333,-0.676292253086,-0.0015435,0.000285833333333,-0.00767515432099
0.35,0.008575,-0.0684094444444,-0.359461882716,-0.0015435,0,-0.00672237654321
0.4,-0.001372,-0.0672661111111,0.328179012346,-0.0015435,-0.000285833333333,-0.00666944444444
0.45,-0.001372,-0.00847972222222,0.526250925926,-0.0015435,-0.000952777777778,-0.00179969135802
0.5,-0.000343,0.0193413888889,0.114650925926,-0.001715,-0.000381111111111,0.0015350308642
0.55,0.003773,-0.00647888888889,-0.178645833333,-0.0015435,-0.000381111111111,-0.00190555555556
0.6,-0.0015435,-0.0285833333333,0.030700617284,-0.001715,-0.000952777777778,0.000370524691358
0.65,-0.002401,0.00390638888889,0.169912037037,-0.001715,-0.000381111111111,0.00370524691358
0.7,0.0008575,0.00533555555556,0.0800333333333,-0.001715,-0.000285833333333,0.0027524691358
0.75,-0.0008575,-0.00466861111111,0.300918981481,-0.001715,-0.000571666666667,0.00793981481481
0.8,-0.001029,0.0144822222222,0.883277932099,-0.0018865,0.0008575,0.00640478395062
0.85,-0.002058,0.0855594444444,1.40407685185,-0.0015435,0.0008575,-0.00804567901235
0.9,0.0060025,0.185791666667,1.32150277778,-0.001715,-0.000666944444444,-0.0101100308642
0.95,0.0190365,0.240385833333,0.768627006173,-0.001715,-0.000571666666667,-0.00259367283951
1,0.031899,0.255725555556,0.290756018519,-0.001715,-0.00104805555556,0.00809861111111
1.05,0.044933,0.256868888889,0.054837654321,-0.0018865,-0.000190555555555,0.0219668209877
1.1,0.057624,0.2546775,-0.0122802469136,-0.0018865,0.00276305555556,0.00682824074074
1.15,0.070315,0.253915277778,-0.0175734567901,-0.001372,0.001715,-0.0276305555556
1.2,0.083006,0.253343611111,-0.0201141975309,-0.0015435,-0.00228666666667,-0.0233430555556
1.25,0.095697,0.252009722222,-0.0223902777778,-0.0018865,-0.001715,0.00238194444445
1.3,0.1082165,0.250675833333,-0.0181027777778,-0.001715,-0.000762222222222,0.00926311728395
1.35,0.120736,0.249818333333,-0.00947484567902,-0.0018865,-0.000762222222222,0.0137094135802
1.4,0.133084,0.250675833333,-0.0176263888889,-0.0018865,0.000762222222222,0.0128625
1.45,0.1459465,0.249056111111,-0.0422398148148,-0.001715,0.000666944444444,0.00788688271605
1.5,0.158123,0.245149722222,-0.0452569444444,-0.0018865,0.00152444444444,0.00179969135802
1.55,0.1702995,0.243720555556,-0.0336648148148,-0.0015435,0.001715,-0.0176263888889
1.6,0.182476,0.2426725,-0.0350939814815,-0.0015435,-0.0008575,-0.0253544753086
1.65,0.1946525,0.240385833333,-0.0407577160494,-0.001715,-0.00209611111111,-0.0127037037037
1.7,0.206486,0.238385,-0.0457862654321,-0.0018865,-0.00123861111111,-0.0173087962963
1.75,0.218491,0.236193611111,-0.060924845679,-0.001715,-0.00238194444444,-0.0576959876543
1.8,0.230153,0.232954166667,-0.0975538580247,-0.002058,-0.00562138888889,-0.146727777778
1.85,0.241815,0.228190277778,-0.18309212963,-0.0022295,-0.0125766666667,-0.340035802469
1.9,0.253134,0.218471944444,-0.358032716049,-0.002744,-0.0338236111111,-0.645983333333
1.95,0.26411,0.196558055556,-0.611736265432,-0.0046305,-0.0766986111111,-0.946214197531
2,0.2735425,0.158065833333,-0.855012191358,-0.009604,-0.136533055556,-1.0677462963
2.05,0.280917,0.101089722222,-0.887353703704,-0.0183505,-0.195319444444,-0.936368827161
2.1,0.282975,0.0567855555556,-0.66498595679,-0.0300125,-0.236193611111,-0.663556790123
2.15,0.2855475,0.0334425,-0.39529691358,-0.0427035,-0.2598225,-0.414034876543
2.2,0.2858905,0.0221044444444,-0.207546759259,-0.0564235,-0.272970833333,-0.255238580247
2.25,0.2876055,0.0162925,-0.102741203704,-0.0701435,-0.28126,-0.177269598765
2.3,0.287434,0.0130530555556,-0.0363114197531,-0.0842065,-0.292979166667,-0.0732580246914
2.35,0.288806,0.0130530555556,0.00894552469136,-0.100156,-0.291454722222,0.0671708333333
2.4,0.2886345,0.0144822222222,0.0354115740741,-0.113876,-0.280307222222,0.100570987654
2.45,0.2900065,0.0201036111111,0.00359938271605,-0.127596,-0.277925277778,0.0643654320988
2.5,0.2913785,0.0139105555556,-0.0140799382716,-0.141659,-0.276115,0.0527733024691
2.55,0.2910355,0.0140058333333,0.0384816358025,-0.155379,-0.272589722222,0.0414987654321
2.6,0.292236,0.0218186111111,0.0235018518518,-0.168756,-0.271446388889,0.0271541666667
2.65,0.2937795,0.02058,-0.0544671296296,-0.182476,-0.271065277778,0.0320768518519
2.7,0.2948085,0.0111475,-0.0461567901235,-0.1960245,-0.268206944444,0.0364172839506
2.75,0.294294,0.0115286111111,0.0335060185185,-0.20923,-0.266491944444,0.026624845679
2.8,0.2954945,0.0193413888889,0.0348293209877,-0.222607,-0.265825,0.0224961419753
2.85,0.296695,0.0198177777778,-0.0417634259259,-0.2358125,-0.265062777778,0.0319180555556
2.9,0.298067,0.0106711111111,-0.0474271604938,-0.2491895,-0.262966666667,0.048750462963
2.95,0.2972095,0.0100994444444,0.0299595679012,-0.2622235,-0.259155555556,0.0623010802469
3,0.2985815,0.0182933333333,0.0302771604938,-0.2749145,-0.258488611111,0.152073919753
3.05,0.2996105,0.0167688888889,-0.035887962963,-0.2879485,-0.253915277778,0.458021450617
3.1,0.3002965,0.0138152777778,-0.0869674382716,-0.301154,-0.227428055556,1.01079135802
3.15,0.3013255,0.00485916666667,-0.0746342592593,-0.3136735,-0.145108055556,1.38211003086
3.2,0.300468,0.00209611111111,0.0150856481481,-0.3157315,-0.0602155555556,1.18520262346
3.25,0.3009825,0.00933722222222,0.047850617284,-0.317618,-0.0138152777778,0.696321759259
3.3,0.3016685,0.0117191666667,-0.0105864197531,-0.315903,0.00409694444444,0.263284259259
3.35,0.3023545,0.00990888888889,-0.0985066358025,-0.316589,0.00323944444444,0.0209611111111
3.4,0.303212,-0.00181027777778,-0.117085802469,-0.3157315,0.00209611111111,-0.0860146604938
3.45,0.30184,-0.00762222222222,-0.0281069444444,-0.31556,-0.0116238888889,-0.0439865740741
3.5,0.30184,-0.0025725,0.0319180555556,-0.317618,-0.0110522222222,0.148315740741
3.55,0.30184,-0.000762222222222,0.027312962963,-0.317961,0.0105758333333,0.213422222222
3.6,0.30184,0,0.0159325617284,-0.3157315,0.0212469444444,0.0723581790123
3.65,0.30184,0.000190555555556,0.011962654321,-0.314874,0.0129577777778,-0.0233959876543
3.7,0.30184,0.000762222222222,0.0160384259259,-0.3157315,0.0218186111111,-0.153132561728
3.75,0.30184,0.00247722222222,0.00783395061728,-0.310758,-0.00142916666667,-0.260743518519
3.8,0.302183,0.00238194444444,-0.0143445987654,-0.315903,-0.022295,-0.0519263888889
3.85,0.302183,0.000381111111111,-0.0243487654321,-0.315217,-0.00495444444444,0.126507716049
3.9,0.302183,-0.00104805555556,-0.0159325617284,-0.3157315,0.00266777777778,0.0849030864198
3.95,0.3020115,-0.00133388888889,-0.00344058641975,-0.314874,0.00867027777778,-0.065212345679
4,0.3020115,-0.000762222222222,-0.000741049382711,-0.313845,-0.00543083333333,-0.181821759259
4.05,0.3020115,-0.00133388888889,-0.000264660493824,-0.315217,-0.0218186111111,-0.0682294753086
4.1,0.30184,-0.00123861111111,0.00656358024691,-0.317275,-0.0161972222222,0.121373302469
4.15,0.30184,-0.000381111111111,0.00799274691358,-0.317275,-0.00123861111111,0.163242592593
4.2,0.30184,-9.52777777777E-05,0.0029112654321,-0.316932,0.00647888888889,0.0752694444444
4.25,0.30184,-9.52777777778E-05,-0.0027524691358,-0.316246,0.00619305555556,-0.0265719135802
4.3,0.30184,-0.000381111111111,-0.00693410493827,-0.3160745,0.000285833333333,-0.0641537037037
4.35,0.30184,-0.00123861111111,-0.0015350308642,-0.3164175,-0.00266777777778,-0.0470566358025
4.4,0.3016685,-0.00104805555556,0.0123331790123,-0.3164175,-0.00400166666667,-0.0268365740741
4.45,0.3016685,0.000285833333333,0.0192672839506,-0.3167605,-0.00552611111111,-0.00174675925926
4.5,0.3016685,0.00200083333333,0.00592839506173,-0.3171035,-0.00447805555556,0.0252486111111
4.55,0.3020115,0.00123861111111,-0.0152444444444,-0.317275,-0.00209611111111,0.0336648148148
4.6,0.30184,-0.000571666666666,-0.0210669753086,-0.317275,-0.000285833333333,0.0243487654321
4.65,0.30184,-0.000571666666667,-0.0366290123457,-0.317275,0.000762222222222,0.00576959876543
4.7,0.30184,-0.00276305555556,-0.075375308642,-0.3171035,0,-0.00725169753087
4.75,0.3016685,-0.00705055555556,-0.118462037037,-0.317275,-0.0008575,-0.00374759259259
4.8,0.3016685,-0.0193413888889,-0.0710613425926,-0.317275,-0.000381111111111,0.00244016975309
4.85,0.299096,-0.0198177777778,0.0748195216049,-0.317275,-0.000285833333333,0.00567961419753
4.9,0.2989245,-0.00686,0.134929212963,-0.317275,-0.000457333333333,0.0193255092593
4.95,0.2989245,-0.00128625,0.112877700617,-0.3174465,0.00138152777778,0.0370101234568
5,0.299096,0.00228666666667,0.0907785493827,-0.3171035,0.00419222222222,0.0485810802469
